name,obs_00,obs_01,obs_02,obs_03,obs_04,obs_05,obs_06,obs_07,obs_08,obs_09,obs_10,obs_11,action_0,action_1,action_2,dKp,dKi,dKd,Kp_prev,Ki_prev,Kd_prev,Kp_new,Ki_new,Kd_new
zero_obs,0.00000000,0.00000000,0.00000000,0.00000000,-0.00000000,-0.00000000,0.09941860,0.05000000,0.19883721,0.09941860,0.05000000,0.19883721,0.05217141,0.04973084,0.00601356,0.0017738279,0.0001690849,0.0000010223,0.17100000,0.00860000,0.00171000,0.17277383,0.00876908,0.0017110223
nominal_hover,0.02000000,0.01000000,0.05000000,0.03000000,-0.11000000,-0.06000000,0.09941860,0.05000000,0.19883721,0.09941860,0.05000000,0.19883721,0.21266551,0.20672494,-0.13488868,0.0072306274,0.0007028648,-0.0000229311,0.17100000,0.00860000,0.00171000,0.17823063,0.00930286,0.0016870689
roll_disturbance,0.15000001,0.01000000,0.80000001,0.05000000,-1.25000000,-0.08000000,0.09941860,0.05000000,0.19883721,0.09941860,0.05000000,0.19883721,1.00000000,-0.99999982,-0.42290732,0.0340000000,-0.0033999994,-0.0000718942,0.17100000,0.00860000,0.00171000,0.20500000,0.00520000,0.0016381058
pitch_disturbance,0.01000000,0.15000001,0.05000000,0.80000001,-0.08000000,-1.25000000,0.09941860,0.05000000,0.19883721,0.09941860,0.05000000,0.19883721,1.00000000,-1.00000000,-1.00000000,0.0340000000,-0.0034000000,-0.0001700000,0.17100000,0.00860000,0.00171000,0.20500000,0.00520000,0.0015400000
combined_disturbance,0.12000000,0.10000000,0.60000002,0.50000000,-0.95999998,-0.80000001,0.09941860,0.05000000,0.19883721,0.09941860,0.05000000,0.19883721,1.00000000,-1.00000000,-0.98468179,0.0340000000,-0.0034000000,-0.0001673959,0.17100000,0.00860000,0.00171000,0.20500000,0.00520000,0.0015426041
high_rate_edge,0.50000000,-0.40000001,5.00000000,-4.00000000,-6.50000000,5.19999981,0.09941860,0.05000000,0.19883721,0.09941860,0.05000000,0.19883721,-1.00000000,-1.00000000,-1.00000000,-0.0340000000,-0.0034000000,-0.0001700000,0.17100000,0.00860000,0.00171000,0.13700000,0.00520000,0.0015400000
adapted_gains,0.08000000,0.06000000,0.30000001,0.20000000,-0.54000002,-0.38000000,0.17441860,0.08720930,0.29069766,0.17441860,0.08720930,0.29069766,0.99995530,0.60169482,-0.84349817,0.0339984801,0.0020457624,-0.0001433947,0.30000000,0.01500000,0.00250000,0.33399848,0.01704576,0.0023566053
gains_at_lower_clamp,0.10000000,0.08000000,0.40000001,0.34999999,-0.69999999,-0.58999997,0.04970930,0.02500000,0.09941860,0.04970930,0.02500000,0.09941860,1.00000000,-1.00000000,1.00000000,0.0340000000,-0.0034000000,0.0001700000,0.08550000,0.00430000,0.00085500,0.11950000,0.00430000,0.0010250000
gains_at_upper_clamp,0.05000000,0.04000000,0.20000000,0.18000001,-0.34999999,-0.30000001,0.24854651,0.12500000,0.49709302,0.24854651,0.12500000,0.49709302,-0.48216709,-0.78720242,-0.93056625,-0.0163936812,-0.0026764882,-0.0001581963,0.42750000,0.02150000,0.00427500,0.41110632,0.01882351,0.0041168037
